/*!
 * The following copyright notice may not be removed under any circumstances.
 * 
 * Copyright:
 * Digitized data copyright (C) 1993-1997 The Monotype Corporation. All rights
 * reserved.
 * 
 * Trademark:
 * Andale is a trademark of The Monotype Corporation which may be registered in
 * certain jurisdictions.
 * 
 * Description:
 * Andale Monospaced is a highly legible monospaced font.
 * 
 * Manufacturer:
 * Monotype Typography
 * 
 * Designer:
 * Steven R. Matteson
 * 
 * Vendor URL:
 * http://www.monotype.com
 * 
 * License information:
 * http://www.monotype.com/html/type/license.html
 */
Cufon.registerFont({"w":1229,"face":{"font-family":"Andale Mono","font-weight":400,"font-stretch":"normal","units-per-em":"2048","panose-1":"2 11 5 9 0 0 0 0 0 4","ascent":"1638","descent":"-410","x-height":"25","bbox":"0 -1536 1229 446","underline-thickness":"102","underline-position":"-154","unicode-range":"U+0020-U+007E"},"glyphs":{" ":{},"!":{"d":"688,-952r-47,528r-86,0r-47,-528r0,-459r180,0r0,459xm479,-104v0,-70,54,-125,123,-125v69,0,125,56,125,125v0,68,-57,131,-125,131v-67,0,-123,-62,-123,-131"},"\"":{"d":"872,-1171r-36,280r-80,0r-37,-280r0,-240r153,0r0,240xm510,-1171r-37,280r-80,0r-37,-280r0,-240r154,0r0,240"},"#":{"d":"1147,-397r-318,0r-84,397r-141,0r84,-397r-268,0r-84,397r-141,0r84,-397r-191,0r0,-131r219,0r76,-359r-295,0r0,-131r322,0r84,-393r141,0r-84,393r268,0r84,-393r141,0r-83,393r186,0r0,131r-213,0r-76,359r289,0r0,131xm793,-887r-269,0r-75,359r268,0"},"$":{"d":"227,-1067v2,-208,146,-331,338,-363r0,-106r117,0r0,98v91,0,181,14,270,43r-37,140v-81,-29,-159,-43,-233,-43r0,489v126,54,214,113,264,179v50,66,76,141,76,224v-1,226,-146,373,-340,418r0,129r-117,0r0,-114v-126,1,-233,-23,-327,-72r34,-141v115,50,200,74,293,73r0,-583v-143,-61,-236,-122,-277,-182v-41,-60,-61,-122,-61,-189xm565,-864r0,-420v-119,31,-178,102,-178,211v0,81,59,150,178,209xm682,-131v120,-43,180,-128,180,-254v0,-140,-74,-193,-180,-254r0,508"},"%":{"d":"47,-1104v0,-181,106,-334,283,-334v182,0,282,147,282,334v0,187,-101,334,-282,334v-180,0,-283,-149,-283,-334xm330,-891v93,0,139,-71,139,-213v0,-142,-46,-213,-139,-213v-93,0,-140,71,-140,213v0,142,47,213,140,213xm1053,-1411r-746,1411r-139,0r745,-1411r140,0xm614,-307v0,-183,105,-334,283,-334v183,0,283,146,283,334v0,186,-102,334,-283,334v-179,0,-283,-150,-283,-334xm897,-94v93,0,139,-71,139,-213v0,-142,-46,-213,-139,-213v-93,0,-139,71,-139,213v0,142,46,213,139,213"},"&":{"d":"543,-1438v172,0,301,107,301,281v0,63,-19,124,-58,182v-39,58,-111,126,-217,203r295,364v82,-191,80,-258,196,-360v41,-36,96,-50,165,-49r0,137v-51,-2,-84,19,-125,65v-38,43,-87,149,-148,318v50,60,89,103,117,129v46,41,85,45,158,33r0,127v-68,25,-155,27,-214,-20v-33,-27,-79,-73,-134,-146v-104,134,-230,201,-377,201v-226,0,-422,-170,-422,-392v0,-71,21,-139,64,-203v43,-64,122,-135,239,-216v-111,-130,-166,-243,-166,-340v0,-184,142,-314,326,-314xm545,-1303v-104,-1,-183,71,-183,179v0,72,45,158,134,258v79,-55,133,-103,164,-145v31,-42,47,-87,47,-134v0,-99,-70,-157,-162,-158xm244,-371v0,142,122,260,262,260v111,0,208,-55,289,-165r-336,-414v-79,57,-135,110,-167,158v-32,48,-48,102,-48,161"},"'":{"d":"692,-1171r-37,280r-80,0r-36,-280r0,-240r153,0r0,240"},"(":{"d":"614,-573v0,390,127,580,344,782r-61,86v-256,-192,-457,-472,-457,-866v0,-395,199,-674,457,-865r61,86v-221,204,-344,390,-344,777"},")":{"d":"614,-573v0,-391,-126,-574,-344,-777r62,-86v258,193,456,468,456,865v0,392,-201,676,-456,866r-62,-86v222,-201,344,-395,344,-782"},"*":{"d":"967,-858r-60,100r-237,-157r0,286r-111,0r0,-286r-240,159r-59,-102r252,-164r-252,-164r59,-100r240,160r0,-285r111,0r0,283r237,-158r60,100r-248,164"},"+":{"d":"1087,-657r-405,0r0,409r-131,0r0,-409r-410,0r0,-131r410,0r0,-410r131,0r0,410r405,0r0,131"},",":{"d":"612,-221v76,0,138,76,138,155v0,131,-73,233,-218,306r-38,-72v81,-40,122,-87,122,-141v-63,-5,-120,-61,-120,-127v0,-66,50,-121,116,-121"},"-":{"d":"901,-487r-594,0r0,-152r594,0r0,152"},".":{"d":"485,-104v0,-70,54,-125,123,-125v69,0,125,56,125,125v0,69,-57,131,-125,131v-67,0,-123,-62,-123,-131"},"\/":{"d":"975,-1438r-613,1465r-147,0r610,-1465r150,0"},"0":{"d":"612,-1438v149,0,260,66,344,192v156,233,157,836,4,1076v-82,129,-194,197,-348,197v-149,0,-259,-67,-344,-192v-157,-232,-157,-835,-4,-1075v83,-129,195,-198,348,-198xm612,-117v99,0,168,-50,220,-141v91,-160,91,-735,0,-894v-52,-91,-121,-140,-220,-140v-97,0,-166,50,-218,143v-92,164,-91,728,0,891v52,92,120,141,218,141xm460,-705v0,-83,65,-150,148,-150v82,0,150,68,150,150v0,83,-68,158,-150,158v-81,0,-148,-76,-148,-158"},"1":{"d":"1018,0r-742,0r0,-143r299,0r0,-1096r-282,141r0,-164r305,-157r141,0r0,1276r279,0r0,143"},"2":{"d":"541,-1438v243,0,423,152,420,391v-3,203,-109,362,-212,492v-61,77,-183,214,-362,412r594,0r0,143r-776,0r0,-119v197,-219,325,-366,383,-441v98,-127,195,-283,198,-480v2,-161,-106,-256,-272,-254v-66,0,-155,20,-266,61r-23,-141v101,-43,206,-64,316,-64"},"3":{"d":"956,-1083v0,148,-126,295,-254,319r0,6v153,39,281,170,285,346v5,247,-238,439,-487,439v-112,0,-212,-25,-301,-74r32,-135v93,43,184,65,275,65v165,0,313,-119,309,-284v-4,-190,-178,-291,-397,-277r0,-135v195,6,366,-89,366,-268v0,-143,-116,-215,-270,-213v-73,0,-154,20,-244,59r-22,-141v91,-41,182,-62,274,-62v232,0,434,137,434,355"},"4":{"d":"1073,-326r-174,0r0,326r-164,0r0,-326r-614,0r0,-125r557,-960r221,0r0,942r174,0r0,143xm735,-469r0,-780r-448,780r448,0"},"5":{"d":"827,-432v0,-177,-103,-292,-268,-293v-57,0,-114,11,-170,33r-98,-45r0,-674r645,0r0,143r-502,0r0,426v312,-83,565,119,565,410v0,250,-213,459,-464,459v-123,0,-227,-21,-310,-62r33,-139v91,38,184,57,281,57v178,0,288,-127,288,-315"},"6":{"d":"1067,-432v0,250,-147,459,-389,459v-151,0,-267,-70,-358,-207v-178,-268,-169,-780,6,-1043v94,-142,217,-215,376,-215v110,0,205,16,285,49r-26,146v-213,-78,-402,-82,-508,105v-59,105,-91,238,-91,403v88,-71,184,-107,287,-107v234,0,418,174,418,410xm893,-418v0,-166,-86,-281,-248,-280v-102,0,-195,35,-278,104v0,121,28,230,85,329v57,99,128,148,214,148v158,-1,227,-130,227,-301"},"7":{"d":"1036,-1294r-559,1294r-168,0r551,-1268r-661,0r0,-143r837,0r0,117"},"8":{"d":"1014,-1081v-1,152,-125,275,-258,307v172,47,299,178,303,379v5,253,-198,422,-445,422v-255,0,-454,-167,-450,-420v3,-200,138,-334,311,-381v-139,-32,-258,-151,-258,-307v0,-192,179,-357,393,-357v212,0,405,165,404,357xm610,-1296v-159,0,-285,170,-206,326v36,71,122,114,206,128v120,-25,233,-86,236,-231v3,-126,-110,-223,-236,-223xm614,-117v157,0,283,-118,275,-284v-8,-180,-94,-254,-279,-301v-183,53,-274,154,-274,301v0,162,126,284,278,284"},"9":{"d":"178,-981v0,-247,167,-459,410,-459v147,0,262,67,345,202v83,135,124,306,124,513v0,207,-48,385,-145,531v-97,146,-227,219,-390,219v-109,0,-204,-17,-284,-50r26,-145v219,81,407,79,520,-110v65,-108,99,-240,99,-398v-81,71,-177,107,-287,107v-234,0,-418,-174,-418,-410xm600,-715v108,0,204,-39,279,-104v0,-127,-26,-237,-77,-333v-51,-96,-119,-144,-202,-144v-157,-1,-248,135,-248,301v0,156,97,280,248,280"},":":{"d":"487,-938v0,-65,54,-119,119,-119v66,0,121,54,121,119v0,65,-55,119,-121,119v-65,0,-119,-54,-119,-119xm487,-102v0,-66,54,-119,119,-119v66,0,121,53,121,119v0,66,-55,118,-121,118v-65,0,-119,-53,-119,-118"},";":{"d":"496,-938v0,-65,53,-119,118,-119v66,0,121,54,121,119v0,67,-55,119,-121,119v-65,0,-118,-54,-118,-119xm612,-221v76,0,138,76,138,155v0,131,-73,233,-218,306r-38,-72v81,-40,122,-87,122,-141v-63,-5,-120,-61,-120,-127v0,-66,50,-121,116,-121"},"<":{"d":"975,-215r-748,-449r0,-120r748,-445r0,144r-600,366r600,357r0,147"},"=":{"d":"1087,-858r-946,0r0,-131r946,0r0,131xm1087,-457r-946,0r0,-131r946,0r0,131"},">":{"d":"1014,-664r-748,449r0,-147r600,-357r-600,-366r0,-144r748,445r0,120"},"?":{"d":"793,-1096v1,-142,-100,-216,-246,-215v-69,0,-155,25,-260,74r-47,-121v118,-53,224,-80,317,-80v240,-1,395,105,395,336v0,115,-76,232,-223,357v-100,85,-116,82,-153,171v-14,37,-13,96,-13,150r-137,0v-6,-150,25,-250,111,-328v74,-68,179,-141,226,-226v20,-37,30,-76,30,-118xm389,-104v0,-70,54,-125,123,-125v69,0,125,56,125,125v0,69,-57,131,-125,131v-67,0,-123,-62,-123,-131"},"@":{"d":"817,-395v-1,31,14,62,41,63v45,0,85,-40,122,-120v91,-196,64,-571,-52,-722v-76,-99,-168,-153,-289,-153v-129,0,-231,69,-313,203v-140,227,-171,784,2,1011v84,110,185,170,315,170v107,0,208,-23,303,-69r23,90v-101,56,-209,84,-326,84v-161,0,-292,-66,-393,-198v-101,-132,-152,-308,-152,-531v0,-267,50,-478,150,-632v100,-154,230,-231,391,-231v328,0,506,308,506,674v0,154,-31,281,-93,382v-62,101,-141,151,-239,151v-67,0,-110,-40,-129,-119v-38,79,-92,119,-162,119v-237,0,-204,-468,-92,-627v83,-118,194,-179,318,-98r4,-25r125,0v-40,359,-60,552,-60,578xm733,-840v-68,-71,-167,-33,-213,59v-43,87,-70,292,-24,397v34,80,116,59,157,-3v25,-37,38,-63,39,-78"},"A":{"d":"1176,0r-172,0r-156,-494r-463,0r-158,494r-170,0r461,-1411r197,0xm801,-637r-185,-584r-184,584r369,0"},"B":{"d":"1034,-1069v0,153,-116,253,-250,291r0,4v170,37,297,162,301,354v5,255,-223,420,-475,420r-401,0r0,-1411r391,0v250,-2,434,108,434,342xm866,-1065v0,-148,-123,-203,-291,-203r-202,0r0,418r192,0v201,0,301,-72,301,-215xm913,-420v0,-199,-150,-289,-366,-287r-174,0r0,564r186,0v199,3,354,-92,354,-277"},"C":{"d":"127,-705v0,-425,155,-731,559,-733v134,-1,286,39,363,95r-54,129v-187,-110,-486,-119,-599,62v-60,96,-95,243,-95,447v0,392,128,588,385,588v109,0,220,-33,334,-100r51,129v-111,77,-239,115,-385,115v-399,0,-559,-300,-559,-732"},"D":{"d":"1098,-705v0,413,-226,701,-604,705r-285,0r0,-1411r278,0v386,0,611,296,611,706xm924,-705v0,-317,-145,-559,-435,-563r-116,0r0,1125r116,0v291,-3,435,-244,435,-562"},"E":{"d":"993,0r-737,0r0,-1411r731,0r0,143r-567,0r0,437r545,0r0,143r-545,0r0,545r573,0r0,143"},"F":{"d":"1004,-1268r-584,0r0,461r532,0r0,143r-532,0r0,664r-164,0r0,-1411r748,0r0,143"},"G":{"d":"127,-705v1,-428,153,-731,559,-733v134,-1,286,39,363,95r-54,129v-187,-110,-485,-120,-599,62v-60,97,-95,244,-95,447v0,392,128,588,385,588v97,0,170,-20,219,-61r0,-348r-254,0r0,-142r418,0r0,568v-115,85,-243,127,-383,127v-401,0,-560,-296,-559,-732"},"H":{"d":"1020,0r-164,0r0,-700r-483,0r0,700r-164,0r0,-1411r164,0r0,567r483,0r0,-567r164,0r0,1411"},"I":{"d":"928,0r-641,0r0,-143r243,0r0,-1125r-243,0r0,-143r641,0r0,143r-234,0r0,1125r234,0r0,143"},"J":{"d":"467,-117v173,-1,234,-91,235,-270r0,-1024r164,0r0,1036v1,258,-139,403,-399,402v-114,0,-218,-24,-311,-72r49,-131v79,39,167,59,262,59"},"K":{"d":"1206,0r-207,0r-477,-692r-149,162r0,530r-164,0r0,-1411r164,0r0,676r626,-676r189,0r-551,596"},"L":{"d":"1024,0r-768,0r0,-1411r164,0r0,1268r604,0r0,143"},"M":{"d":"1069,0r-158,0r0,-1210r-213,579r-155,0r-213,-579r0,1210r-158,0r0,-1411r213,0r236,643r235,-643r213,0r0,1411"},"N":{"d":"1040,0r-182,0r-506,-1114r0,1114r-164,0r0,-1411r183,0r508,1104r0,-1104r161,0r0,1411"},"O":{"d":"612,-1438v158,0,274,66,362,188v161,223,161,865,0,1089v-88,122,-203,188,-362,188v-157,0,-272,-65,-360,-187v-161,-224,-161,-866,-1,-1090v87,-122,203,-188,361,-188xm612,-117v208,0,312,-196,312,-588v0,-393,-104,-589,-312,-589v-101,0,-175,52,-232,152v-103,181,-102,695,0,874v56,98,130,151,232,151"},"P":{"d":"1061,-1028v0,244,-190,399,-440,395r-201,0r0,633r-164,0r0,-1411r358,0v256,-3,447,136,447,383xm887,-1018v0,-152,-124,-250,-281,-250r-186,0r0,492r178,0v193,0,289,-81,289,-242"},"Q":{"d":"1135,233v-221,69,-405,11,-457,-213v-194,28,-327,-44,-426,-180v-162,-223,-161,-866,-1,-1090v87,-122,203,-188,361,-188v158,0,279,63,362,188v83,125,124,306,124,545v0,347,-87,572,-260,676v36,152,123,165,268,131xm612,-117v208,0,312,-196,312,-588v0,-393,-104,-589,-312,-589v-101,0,-175,52,-232,152v-103,181,-102,695,0,874v56,98,130,151,232,151"},"R":{"d":"1042,-1042v-2,193,-144,328,-319,366r451,676r-205,0r-414,-641r-182,0r0,641r-164,0r0,-1411r399,0v253,-3,436,127,434,369xm580,-784v160,4,292,-98,292,-248v0,-157,-96,-236,-288,-236r-211,0r0,484r207,0"},"S":{"d":"227,-1067v-4,-239,202,-371,445,-371v94,0,187,14,280,43r-37,140v-214,-82,-528,-60,-528,182v0,85,71,159,211,225v175,83,203,81,309,177v65,59,112,146,115,265v6,265,-214,434,-465,433v-121,0,-228,-24,-319,-72r34,-141v107,49,201,73,281,73v178,2,310,-99,309,-272v0,-63,-18,-115,-55,-159v-37,-44,-105,-87,-203,-134v-166,-80,-191,-74,-285,-166v-54,-53,-91,-124,-92,-223"},"T":{"d":"1133,-1278r-435,0r0,1278r-163,0r0,-1278r-437,0r0,-133r1035,0r0,133"},"U":{"d":"618,-117v188,0,238,-127,238,-340r0,-954r164,0r0,967v0,308,-112,471,-402,471v-273,0,-409,-156,-409,-467r0,-971r164,0r0,956v0,225,82,338,245,338"},"V":{"d":"1171,-1411r-460,1411r-197,0r-461,-1411r172,0r387,1221r389,-1221r170,0"},"W":{"d":"1186,-1411r-180,1411r-152,0r-240,-795r-239,795r-156,0r-176,-1411r162,0r119,1147r208,-694r164,0r209,696r121,-1149r160,0"},"X":{"d":"1163,0r-182,0r-358,-578r-355,578r-182,0r451,-719r-449,-692r188,0r347,559r350,-559r180,0r-442,692"},"Y":{"d":"1139,-1411r-441,807r0,604r-163,0r0,-604r-441,-807r185,0r337,635r338,-635r185,0"},"Z":{"d":"1040,-1294r-671,1151r659,0r0,143r-846,0r0,-115r668,-1153r-639,0r0,-143r829,0r0,117"},"[":{"d":"911,270r-389,0r0,-1681r389,0r0,137r-233,0r0,1409r233,0r0,135"},"\\":{"d":"973,27r-148,0r-612,-1465r149,0"},"]":{"d":"678,266r-399,0r0,-135r243,0r0,-1407r-243,0r0,-135r399,0r0,1677"},"^":{"d":"1124,-788r-143,0r-367,-601r-356,601r-147,0r448,-748r121,0"},"_":{"d":"1229,446r-1229,0r0,-131r1229,0r0,131"},"`":{"d":"772,-1165r-113,0r-311,-301r225,0"},"a":{"d":"612,-932v-93,1,-238,48,-305,86r-41,-112v142,-73,274,-109,396,-109v237,0,356,126,356,377v0,232,-19,498,26,690r-155,0v-13,-42,-19,-98,-19,-168v-89,130,-209,195,-362,195v-155,0,-299,-131,-293,-295v12,-314,339,-322,647,-346v11,-204,-65,-321,-250,-318xm553,-123v137,-4,243,-91,309,-186r0,-189v-231,27,-306,12,-426,97v-40,28,-57,71,-57,122v-1,94,77,159,174,156"},"b":{"d":"686,27v-142,-1,-259,-82,-315,-177r0,150r-156,0r0,-1411r156,0r0,504v61,-88,186,-160,327,-160v263,0,385,245,385,530v0,161,-36,295,-108,403v-72,108,-168,161,-289,161xm920,-528v0,-210,-80,-404,-269,-404v-110,0,-203,60,-280,180r0,433v48,97,148,206,274,206v185,0,275,-212,275,-415"},"c":{"d":"340,-520v0,223,153,411,375,411v88,0,179,-17,272,-51r27,125v-91,41,-190,62,-299,62v-325,0,-539,-222,-539,-547v0,-323,216,-547,535,-547v105,0,204,18,299,55r-41,129v-95,-33,-180,-49,-256,-49v-235,-2,-373,170,-373,412"},"d":{"d":"145,-537v0,-276,140,-530,396,-530v131,0,237,53,317,160r0,-504r156,0r0,1411r-156,0r0,-150v-56,93,-185,177,-326,177v-262,0,-387,-277,-387,-564xm309,-528v0,207,79,415,264,415v103,0,175,-59,232,-128v35,-43,53,-69,53,-78r0,-433v-75,-120,-165,-180,-270,-180v-188,1,-279,198,-279,404"},"e":{"d":"627,-1067v271,0,444,240,422,551r-715,0v-7,219,148,409,354,407v95,0,192,-17,293,-51r27,125v-92,41,-199,62,-322,62v-314,3,-516,-227,-516,-551v0,-305,173,-543,457,-543xm879,-643v7,-146,-114,-289,-246,-289v-166,0,-281,127,-289,289r535,0"},"f":{"d":"485,-1042v-3,-264,50,-396,303,-394v72,0,152,14,240,41r-41,127v-74,-21,-140,-32,-199,-32v-145,0,-143,92,-147,258r350,0r0,135r-350,0r0,907r-156,0r0,-907r-262,0r0,-135r262,0"},"g":{"d":"915,-729v-1,208,-175,366,-411,336v-97,47,-146,89,-146,125v0,48,63,71,125,69r351,-10v159,-1,264,80,264,234v0,246,-272,387,-527,387v-199,0,-393,-86,-393,-260v0,-83,57,-154,170,-211v-216,-103,-171,-263,41,-367v-98,-57,-171,-164,-174,-303v-4,-194,156,-336,350,-336v72,0,137,15,195,45r309,-47r0,152r-199,0v30,53,45,115,45,186xm369,-727v0,118,83,215,196,215v117,0,195,-94,195,-215v0,-128,-72,-215,-195,-215v-114,0,-196,95,-196,215xm348,68v-83,134,74,223,223,223v175,0,371,-86,371,-238v0,-162,-292,-94,-454,-94v-41,0,-120,76,-140,109"},"h":{"d":"862,-668v-1,-165,-38,-264,-184,-264v-95,0,-198,59,-307,178r0,754r-156,0r0,-1411r156,0r0,522v112,-119,230,-178,354,-178v195,0,293,118,293,354r0,713r-156,0r0,-668"},"i":{"d":"578,-1329v0,-55,50,-107,104,-107v57,0,106,50,106,107v0,60,-47,108,-106,108v-54,0,-104,-53,-104,-108xm758,0r-156,0r0,-907r-307,0r0,-135r463,0r0,1042"},"j":{"d":"578,-1329v0,-55,50,-107,104,-107v57,0,106,50,106,107v0,60,-47,108,-106,108v-54,0,-104,-53,-104,-108xm455,276v139,0,147,-74,147,-239r0,-944r-307,0r0,-135r463,0r0,1095v-3,250,-63,359,-303,359v-72,0,-152,-14,-240,-41r41,-127v74,21,140,32,199,32"},"k":{"d":"1120,0r-205,0r-442,-518r-102,88r0,430r-156,0r0,-1411r156,0r0,809r489,-440r199,0r-475,426"},"l":{"d":"942,0r-426,0r0,-1276r-272,0r0,-135r428,0r0,1276r270,0r0,135"},"m":{"d":"686,-885v46,-87,120,-182,225,-182v126,0,189,113,189,338r0,729r-156,0r0,-684v5,-255,-92,-321,-196,-162v-38,57,-56,88,-56,94r0,752r-155,0r0,-684v5,-254,-91,-321,-195,-162v-38,57,-57,88,-57,94r0,752r-156,0r0,-1042r150,0r0,157v46,-87,119,-182,225,-182v98,0,163,89,182,182"},"n":{"d":"862,-668v-1,-165,-38,-264,-184,-264v-95,0,-198,59,-307,178r0,754r-156,0r0,-1042r156,0r0,153v112,-119,230,-178,354,-178v195,0,293,118,293,354r0,713r-156,0r0,-668"},"o":{"d":"145,-522v0,-309,172,-545,469,-545v296,0,469,238,469,545v0,310,-172,549,-469,549v-298,0,-469,-238,-469,-549xm309,-520v0,212,103,411,305,411v199,0,306,-204,306,-411v0,-218,-101,-412,-306,-412v-207,0,-305,191,-305,412"},"p":{"d":"686,27v-142,0,-259,-82,-315,-177r0,562r-156,0r0,-1454r156,0r0,135v61,-88,186,-160,327,-160v261,0,385,252,385,535v0,286,-134,559,-397,559xm920,-524v0,-210,-80,-408,-269,-408v-110,0,-203,60,-280,180r0,433v48,97,148,206,274,206v185,0,275,-208,275,-411"},"q":{"d":"145,-530v0,-280,137,-536,396,-537v131,0,237,53,317,160r0,-135r156,0r0,1454r-156,0r0,-562v-56,93,-185,177,-326,177v-261,0,-387,-271,-387,-557xm309,-522v0,207,80,409,264,409v103,0,175,-59,232,-128v35,-43,53,-69,53,-78r0,-433v-75,-120,-165,-180,-270,-180v-188,1,-279,204,-279,410"},"r":{"d":"793,-909v-146,0,-264,150,-312,235r0,674r-155,0r0,-1042r155,0r0,211v120,-239,314,-290,553,-183r-63,150v-69,-30,-128,-45,-178,-45"},"s":{"d":"233,-774v0,-296,419,-344,711,-250r-35,131v-87,-29,-170,-43,-247,-43v-140,-1,-275,42,-275,156v0,93,67,109,170,141v203,63,447,92,447,344v0,214,-212,322,-443,322v-128,0,-234,-19,-317,-58r30,-135v87,41,181,62,281,62v146,0,293,-53,293,-177v0,-36,-13,-69,-40,-97v-81,-83,-364,-114,-475,-198v-58,-44,-100,-105,-100,-198"},"t":{"d":"592,-311v-2,115,51,200,156,200v85,0,170,-19,253,-57r27,121v-105,48,-208,72,-309,72v-186,0,-279,-98,-279,-295r0,-637r-200,0r0,-135r200,0r0,-285r152,0r0,285r354,0r0,135r-354,0r0,596"},"u":{"d":"369,-375v2,161,35,264,184,264v95,0,198,-59,307,-178r0,-753r156,0r0,1042r-156,0r0,-154v-112,119,-230,179,-354,179v-195,0,-293,-118,-293,-355r0,-712r156,0r0,667"},"v":{"d":"1065,-1042r-395,1042r-142,0r-393,-1042r170,0r295,829r295,-829r170,0"},"w":{"d":"1141,-1042r-150,1042r-119,0r-245,-590r-246,590r-119,0r-147,-1042r155,0v55,487,84,742,86,766r191,-453r160,0r190,450r84,-763r160,0"},"x":{"d":"1055,0r-176,0r-279,-408r-289,408r-166,0r371,-522r-371,-520r179,0r280,405r285,-405r166,0r-369,514"},"y":{"d":"1065,-1042r-395,1042v-57,153,-115,259,-170,321v-98,111,-237,108,-383,56r26,-125v112,35,208,39,274,-41v36,-43,72,-114,109,-213r-391,-1040r170,0r295,831r295,-831r170,0"},"z":{"d":"1004,0r-801,0r0,-84r594,-821r-580,0r0,-137r787,0r0,77r-594,828r594,0r0,137"},"{":{"d":"719,-20v-2,190,26,232,196,231r0,131r-79,0v-222,-7,-268,-114,-271,-365r0,-96v-3,-213,-29,-324,-207,-334r0,-163v178,-9,204,-122,207,-334r0,-97v3,-251,49,-356,271,-364r79,0r0,131v-168,-1,-197,41,-196,231r0,64v-2,259,-41,375,-211,450v186,74,213,236,211,515"},"|":{"d":"686,383r-154,0r0,-1794r154,0r0,1794"},"}":{"d":"659,-1047v1,225,-6,434,207,431r0,163v-177,9,-204,123,-207,334r0,96v-3,252,-47,357,-270,365r-80,0r0,-131v168,2,199,-40,197,-231r0,-64v2,-260,42,-374,211,-451v-186,-72,-213,-236,-211,-514v2,-191,-27,-232,-197,-231r0,-131r80,0v222,7,269,114,270,364"},"~":{"d":"365,-674v94,0,416,156,503,156v78,0,174,-46,287,-137r0,143v-103,87,-203,131,-299,131v-93,0,-419,-156,-506,-156v-78,0,-175,46,-291,138r0,-144v105,-87,207,-131,306,-131"},"\u00a0":{}}});
