/*!
 * The following copyright notice may not be removed under any circumstances.
 * 
 * Copyright:
 * Typeface © 1992 Fonderia Caratteri Svizzera Walter Fruttiger A.G. Data © 1992
 * URW. Portions © 1992 Microsoft Corp. All rights reserved.
 */
Cufon.registerFont({"w":1256,"face":{"font-family":"Eurostile","font-weight":400,"font-stretch":"normal","units-per-em":"2048","panose-1":"2 11 5 4 2 2 2 5 2 4","ascent":"1638","descent":"-410","x-height":"14","bbox":"-136 -1492 2041 428.977","underline-thickness":"130","underline-position":"-136","unicode-range":"U+0020-U+007E"},"glyphs":{" ":{"w":512},"!":{"d":"160,-1365r168,0r-20,988r-131,0xm168,0r0,-184r154,0r0,184r-154,0","w":491},"\"":{"d":"93,-1365r138,0r-20,546r-99,0xm408,-1365r138,0r-19,546r-99,0","w":639},"#":{"d":"94,-433r15,-92r236,0r49,-320r-236,0r16,-92r236,0r67,-428r108,0r-68,428r303,0r68,-428r109,0r-68,428r234,0r-16,92r-234,0r-48,320r236,0r-16,92r-236,0r-68,433r-109,0r69,-433r-304,0r-68,433r-108,0r69,-433r-236,0xm453,-525r303,0r49,-320r-303,0"},"$":{"d":"1201,-385v0,322,-127,378,-469,384r-44,1r0,154r-116,0r0,-154r-99,0v-51,0,-93,-1,-126,-4v-195,-15,-292,-156,-292,-421r151,0r0,25v8,266,40,264,318,274r48,2r0,-505v-206,0,-341,-24,-406,-71v-65,-47,-97,-147,-97,-298v0,-146,33,-244,101,-293v68,-49,202,-74,402,-74r0,-127r116,0r0,127r57,1v315,7,417,44,425,338r-1,43r-148,0r-1,-34v-6,-210,-51,-208,-275,-216r-57,0r0,474v203,0,338,25,408,76v70,51,105,150,105,298xm525,-1235v-234,8,-309,8,-309,219v0,239,66,248,320,256r36,1r0,-476r-47,0xm1054,-385v-9,-229,-79,-233,-329,-241r-37,-1r0,503v214,41,374,-41,366,-261","w":1257},"%":{"d":"350,-677v-303,0,-316,-42,-316,-355v0,-285,23,-338,299,-338v298,0,297,33,297,342v0,157,-15,254,-46,293v-31,39,-109,58,-234,58xm331,-1298v-220,0,-212,26,-212,257v0,145,11,230,33,255v22,25,101,37,234,37v106,0,159,-53,159,-159r0,-229v-5,-167,-33,-161,-214,-161xm295,0r921,-1365r99,0r-927,1365r-93,0xm1291,5v-303,0,-316,-42,-316,-355v0,-285,23,-338,299,-338v298,0,297,33,297,342v0,157,-15,256,-46,294v-31,38,-109,57,-234,57xm1272,-616v-220,0,-212,26,-212,257v0,145,12,230,34,255v22,25,100,37,233,37v106,0,159,-53,159,-159r0,-229v-5,-167,-34,-161,-214,-161","w":1609},"&":{"d":"672,-1223v-181,0,-246,7,-253,167v-5,94,60,159,121,210r514,428r0,-185r152,0v3,102,3,216,-14,299r239,197r-84,107r-202,-167v-57,121,-209,181,-458,181v-240,0,-395,-27,-465,-80v-70,-53,-105,-172,-105,-355v0,-261,66,-322,279,-363v-83,-69,-124,-149,-124,-239v0,-279,109,-330,406,-330v290,0,391,49,398,322r-2,85r-151,0r0,-51v-7,-218,-27,-226,-251,-226xm492,-701v-201,54,-228,49,-228,284v0,139,20,224,60,255v40,31,152,46,334,46v218,0,340,-49,367,-146","w":1434},"'":{"d":"93,-1365r138,0r-20,546r-99,0","w":323},"(":{"d":"103,-478v0,-430,17,-686,45,-770v30,-91,155,-132,317,-124r0,130v-97,0,-157,24,-175,73v-43,119,-27,692,-27,936v0,249,10,397,29,446v19,49,76,73,173,73r0,130v-161,8,-288,-33,-317,-124v-27,-84,-45,-340,-45,-770","w":568},")":{"d":"102,286v97,0,156,-24,174,-73v43,-118,29,-692,29,-935v0,-249,-10,-398,-29,-447v-19,-49,-77,-73,-174,-73r0,-130v161,-8,287,33,316,124v27,84,46,340,46,770v0,430,-18,686,-46,770v-30,91,-154,132,-316,124r0,-130","w":568},"*":{"d":"263,-1074r35,-100r280,100r0,-291r102,0r0,291r278,-100r36,100r-281,105r167,238r-80,60r-170,-247r-183,247r-80,-60r175,-238","w":1257},"+":{"d":"155,-617r0,-130r403,0r0,-409r140,0r0,409r403,0r0,130r-403,0r0,407r-140,0r0,-407r-403,0"},",":{"d":"109,123v71,-3,93,-49,85,-123r-65,0r0,-184r154,0r0,198v-1,141,-54,200,-174,185r0,-76","w":406},"-":{"d":"0,-432r3,-130r422,0r0,130r-425,0","w":425},".":{"d":"123,0r0,-184r154,0r0,184r-154,0","w":400},"\/":{"d":"-136,410r1201,-1775r114,0r-1200,1775r-115,0","w":1323},"0":{"d":"93,-732v0,-299,27,-482,82,-548v55,-66,206,-99,453,-99v253,0,405,33,457,101v52,68,78,266,78,595v0,313,-25,503,-74,570v-63,85,-217,127,-461,127v-244,0,-398,-42,-461,-127v-49,-67,-74,-273,-74,-619xm240,-683v0,279,16,444,50,493v34,49,147,74,338,74v191,0,304,-25,338,-74v34,-49,50,-214,50,-493v0,-279,-16,-443,-50,-492v-34,-49,-147,-74,-338,-74v-191,0,-304,25,-338,74v-34,49,-50,213,-50,492"},"1":{"d":"210,-955r378,-410r222,0r0,1365r-154,0r0,-1250r-349,387","w":1257},"2":{"d":"632,-1379v365,0,466,74,466,431v0,163,-29,273,-88,328v-59,55,-188,92,-385,111v-173,17,-277,41,-310,72v-39,23,-53,173,-50,307r829,0r0,130r-983,0r0,-257v0,-144,28,-238,84,-283v56,-45,189,-79,399,-103v168,-19,269,-44,304,-76v35,-32,53,-115,53,-249v0,-251,-55,-281,-314,-281v-164,0,-268,15,-311,43v-43,28,-64,96,-64,204r2,102r-151,0r1,-71v10,-364,128,-408,518,-408"},"3":{"d":"1124,-380v0,352,-120,394,-496,394v-215,0,-354,-27,-423,-72v-80,-52,-107,-213,-100,-386r150,0r0,79v0,116,20,186,59,211v39,25,151,38,335,38v277,0,328,-11,328,-275v0,-221,-57,-235,-289,-242r-188,0r0,-131v162,4,361,-7,390,-34v41,-23,61,-87,61,-191v0,-120,-17,-193,-53,-220v-35,-51,-529,-55,-572,-1v-44,22,-56,154,-52,264r-146,0r1,-54v9,-347,105,-379,475,-379v201,0,334,22,398,67v64,45,96,138,96,279v0,232,-32,298,-230,328r0,7v209,34,256,82,256,318"},"4":{"d":"54,-315r0,-181r680,-869r238,0r0,920r204,0r0,130r-204,0r0,315r-154,0r0,-315r-764,0xm181,-445r637,0r0,-821r-3,0"},"5":{"d":"1133,-491v0,425,-70,505,-492,505v-202,0,-336,-25,-405,-71v-78,-51,-109,-177,-103,-333r145,0v0,123,20,200,58,230v38,30,136,44,293,44v346,0,357,-20,357,-369v0,-292,-48,-319,-347,-319v-208,0,-322,44,-342,131r-139,0r0,-692r919,0r0,130r-766,0r-7,414r3,0v53,-75,173,-113,359,-113v360,0,467,88,467,443"},"6":{"d":"615,14v-420,0,-503,-67,-513,-480r-3,-248r4,-220v9,-378,92,-445,478,-445v195,0,327,23,397,65v79,48,113,155,104,294r-150,0v3,-25,4,-41,4,-49v-7,-174,-81,-180,-280,-180v-172,0,-279,16,-326,44v-97,58,-63,322,-69,487r3,0v58,-81,189,-122,393,-122v361,0,461,65,461,416v0,386,-101,438,-503,438xm246,-472v0,335,30,356,367,356v160,0,260,-16,299,-47v39,-31,59,-112,59,-241v0,-139,-19,-224,-58,-257v-47,-64,-538,-65,-599,-4v-46,30,-68,94,-68,193","w":1255},"7":{"d":"98,-1235r0,-130r995,0r0,196r-661,1169r-183,0r716,-1235r-867,0"},"8":{"d":"1123,-391v0,366,-104,405,-491,405v-222,0,-365,-24,-430,-72v-65,-48,-98,-152,-98,-315v0,-244,34,-290,237,-335r0,-3v-185,-45,-219,-89,-219,-316v0,-145,31,-240,92,-285v61,-45,190,-67,386,-67v216,0,355,21,416,65v61,44,92,143,92,298v0,215,-41,263,-218,307r0,3v194,45,233,85,233,315xm251,-383v0,210,23,259,223,264r193,3v106,-4,240,-14,274,-76v21,-37,35,-107,35,-212v0,-102,-22,-167,-65,-194v-52,-53,-552,-56,-602,1v-39,28,-58,99,-58,214xm672,-769v245,0,289,-20,289,-257v0,-102,-19,-165,-57,-188v-38,-45,-546,-48,-585,2v-33,24,-50,92,-50,205v0,110,21,177,62,201v41,24,155,37,341,37","w":1257},"9":{"d":"1122,-417v-9,379,-109,431,-506,431v-202,0,-338,-21,-409,-62v-82,-47,-117,-159,-103,-300r145,0v-6,90,12,176,59,199v41,20,135,33,286,33v172,0,274,-21,315,-50v63,-45,58,-328,57,-485r-3,0v-53,81,-190,122,-410,122v-343,0,-440,-70,-440,-405v0,-389,94,-445,494,-445v408,0,504,60,514,454r4,367xm593,-1249v-294,0,-333,10,-333,294v0,271,37,296,312,296v177,0,286,-13,329,-41v43,-28,64,-99,64,-213v0,-329,-34,-336,-372,-336","w":1257},":":{"d":"123,0r0,-184r154,0r0,184r-154,0xm123,-772r0,-184r154,0r0,184r-154,0","w":400},";":{"d":"68,123v71,-3,93,-49,85,-123r-65,0r0,-184r154,0r0,198v-1,141,-54,200,-174,185r0,-76xm78,-772r0,-184r154,0r0,184r-154,0","w":365},"<":{"d":"0,-628r0,-122r887,-413r0,140r-737,334r737,335r0,139","w":887},"=":{"d":"155,-447r0,-130r946,0r0,130r-946,0xm155,-788r0,-130r946,0r0,130r-946,0"},">":{"d":"0,-215r0,-140r737,-334r-737,-334r0,-139r887,413r0,122","w":887},"?":{"d":"538,-1249v-255,0,-277,20,-285,272r1,39r-145,0r1,-45v9,-349,88,-396,451,-396v310,0,400,68,400,372v0,208,-64,335,-193,381r-84,30v-103,40,-143,94,-138,202r-151,0v0,-92,9,-185,39,-221v27,-50,167,-104,254,-136v84,-31,126,-113,126,-242v0,-240,-31,-256,-276,-256xm387,0r0,-184r154,0r0,184r-154,0","w":1064},"@":{"d":"349,-625v0,-245,38,-344,265,-344v118,0,191,31,220,94r3,0r0,-94r102,0r2,514v0,72,28,108,83,108v66,0,99,-117,99,-351v0,-197,-22,-316,-67,-358v-45,-42,-173,-63,-384,-63v-236,0,-380,25,-430,74v-50,49,-75,189,-75,420v0,245,27,395,83,450v56,55,210,82,461,82v171,0,271,-27,300,-82r68,49v-40,70,-168,105,-385,105v-263,0,-432,-36,-504,-107v-72,-71,-108,-236,-108,-495v0,-254,34,-415,103,-483v69,-68,231,-102,487,-102v226,0,372,28,438,85v66,57,98,183,98,379v0,179,-13,301,-39,368v-26,67,-74,101,-143,101v-97,0,-153,-37,-168,-110r-4,0v-32,77,-113,116,-243,116v-227,0,-262,-107,-262,-356xm643,-897v-191,0,-192,63,-192,275v0,203,3,281,182,281v90,0,146,-19,169,-57v23,-38,34,-131,34,-282v0,-145,-64,-217,-193,-217","w":1290},"A":{"d":"10,0r500,-1365r216,0r510,1365r-161,0r-106,-289r-691,0r-105,289r-163,0xm322,-405r602,0r-303,-834","w":1246},"B":{"d":"1182,-393v0,291,-94,393,-383,393r-669,0r0,-1365r604,0v329,9,406,43,406,361v0,151,-58,247,-175,287r0,3v145,35,217,142,217,321xm750,-131v226,-6,285,-23,285,-238v0,-122,-17,-199,-55,-225v-97,-65,-497,-35,-696,-41r0,505xm993,-1016v0,-202,-50,-219,-262,-219r-447,0r0,470r405,0v247,-8,304,-17,304,-251","w":1264},"C":{"d":"1007,-990v-6,-237,-49,-259,-295,-259v-220,0,-354,18,-403,55v-49,37,-73,138,-73,305v0,383,16,608,49,674v33,66,144,99,335,99v181,0,295,-14,340,-43v45,-29,67,-101,67,-216r-2,-81r153,0r0,52v0,186,-32,302,-95,348v-63,46,-223,70,-478,70v-229,0,-374,-40,-436,-122v-62,-82,-93,-274,-93,-577v0,-237,7,-386,21,-447v14,-61,54,-115,120,-163v77,-56,244,-84,501,-84v341,0,435,65,442,394r1,37r-153,0","w":1222},"D":{"d":"762,-1365v431,10,501,163,501,623v0,296,-31,494,-93,593v-62,99,-184,149,-369,149r-671,0r0,-1365r632,0xm284,-130r445,0v163,0,269,-33,316,-98v47,-65,71,-211,71,-437v0,-248,-21,-405,-62,-471v-41,-66,-139,-99,-294,-99r-476,0r0,1105","w":1338},"E":{"d":"75,0r0,-1365r877,0r0,130r-723,0r0,465r693,0r0,130r-693,0r0,510r723,0r0,130r-877,0","w":1020},"F":{"d":"130,0r0,-1365r837,0r0,130r-683,0r0,477r665,0r0,130r-665,0r0,628r-154,0","w":1001},"G":{"d":"643,14v-495,0,-553,-73,-567,-568r0,-322v10,-434,125,-503,576,-503v232,0,380,23,449,65v76,46,107,182,101,345r-151,0v4,-114,-18,-215,-69,-241v-47,-24,-164,-39,-357,-39v-361,0,-401,24,-401,381v0,219,-30,612,74,693v50,39,182,59,397,59v336,0,353,-17,364,-349v0,-13,-3,-41,-8,-84r-434,0r0,-130r585,0v3,35,4,85,4,149v0,246,-30,398,-90,456v-60,58,-218,88,-473,88","w":1268},"H":{"d":"130,0r0,-1365r154,0r0,602r798,0r0,-602r154,0r0,1365r-154,0r0,-633r-798,0r0,633r-154,0","w":1365},"I":{"d":"130,0r0,-1365r154,0r0,1365r-154,0","w":417},"J":{"d":"480,14v-310,0,-427,-57,-427,-349v0,-62,1,-116,3,-162r151,0r0,130v7,235,28,251,267,251v253,0,270,-48,270,-311r0,-938r154,0r0,963v-6,328,-90,416,-418,416","w":1028},"K":{"d":"130,0r0,-1365r154,0r0,596r135,0r560,-596r199,0r-624,658r700,707r-211,0r-624,-639r-135,0r0,639r-154,0","w":1235},"L":{"d":"130,0r0,-1365r154,0r0,1222r702,0r0,143r-856,0","w":993},"M":{"d":"130,0r0,-1365r267,0r479,1168r4,0r477,-1168r271,0r0,1365r-154,0r2,-1256r-4,0r-50,127r-465,1129r-154,0r-517,-1242r-4,0r2,1242r-154,0","w":1757},"N":{"d":"130,0r0,-1365r252,0r758,1241r4,0r-2,-1241r154,0r0,1365r-253,0r-757,-1234r-4,0r2,1234r-154,0","w":1426},"O":{"d":"49,-908v9,-397,157,-471,580,-471v258,0,419,38,484,113v65,75,97,264,97,565v0,325,-31,525,-93,601v-62,76,-225,114,-488,114v-262,0,-424,-38,-487,-113v-63,-75,-95,-270,-95,-584xm194,-683v0,282,18,447,55,495v37,48,163,72,379,72v217,0,343,-24,380,-72v37,-48,55,-213,55,-495r-1,-218v0,-151,-25,-246,-76,-287v-51,-41,-170,-61,-358,-61v-216,0,-342,24,-379,72v-37,48,-55,213,-55,494"},"P":{"d":"1154,-943v0,321,-92,403,-416,404r-454,1r0,538r-154,0r0,-1365r625,0v320,6,399,97,399,422xm1007,-931v0,-254,-9,-302,-250,-303r-473,-1r0,567v200,-5,559,22,658,-47v43,-31,65,-103,65,-216","w":1208},"Q":{"d":"48,-738v0,-279,34,-456,101,-530v67,-74,228,-111,481,-111v258,0,419,38,484,113v65,75,97,264,97,565v0,226,-8,374,-25,444r136,90r-63,105r-122,-79v-73,103,-242,155,-507,155v-270,0,-435,-38,-494,-114v-59,-76,-88,-289,-88,-638xm195,-683v0,282,18,447,55,495v37,48,162,72,377,72v213,0,343,-35,388,-105r-409,-268r71,-105r373,247v9,-49,14,-135,14,-258v0,-329,-16,-519,-50,-569v-34,-50,-162,-75,-385,-75v-216,0,-342,24,-379,72v-37,48,-55,213,-55,494","w":1342},"R":{"d":"1180,-976v0,243,-37,323,-236,360r0,3v145,11,217,99,217,264r0,349r-154,0r0,-314v-1,-179,-84,-239,-258,-239r-465,0r0,553r-154,0r0,-1365r650,0v294,4,400,96,400,389xm1033,-938v0,-238,-24,-297,-251,-297r-498,0r0,552r445,0v225,-4,304,-41,304,-255","w":1276},"S":{"d":"913,-995v-7,-245,-54,-254,-314,-254v-161,0,-265,15,-312,43v-47,28,-70,91,-70,189v0,110,18,177,55,201v37,24,146,41,327,49v213,10,347,36,405,81v58,45,87,145,87,300v0,168,-33,277,-99,326v-66,49,-213,74,-440,74v-197,0,-325,-27,-392,-74v-75,-53,-103,-200,-99,-362r153,0v-3,120,15,234,56,262v39,27,133,44,287,44v177,0,285,-14,326,-44v41,-30,61,-109,61,-238v0,-178,-41,-207,-215,-216r-312,-16v-231,-16,-347,-136,-347,-360v0,-348,128,-389,504,-389v204,0,337,25,399,73v62,48,93,152,93,311r-153,0","w":1146},"T":{"d":"7,-1222r0,-143r1040,0r0,143r-441,0r0,1222r-154,0r0,-1222r-445,0","w":1054},"U":{"d":"244,-64v-83,-56,-113,-182,-113,-345r0,-956r154,0r0,956v0,129,21,210,63,243v42,33,145,50,310,50v179,0,290,-16,334,-48v44,-32,66,-114,66,-245r0,-956r154,0r0,956v0,173,-34,287,-104,341v-70,54,-216,82,-439,82v-209,0,-349,-27,-425,-78","w":1341},"V":{"d":"-10,-1365r164,0r400,1136r33,105r4,0v20,-67,42,-137,67,-208r358,-1033r165,0r-483,1365r-220,0","w":1171},"W":{"d":"3,-1365r158,0r373,1247r3,0r367,-1247r228,0r364,1247r3,0r381,-1247r161,0r-430,1365r-234,0r-358,-1229r-3,0r-364,1229r-230,0","w":2045},"X":{"d":"-10,0r488,-706r-449,-659r186,0r386,583v18,-9,35,-56,44,-63r340,-520r182,0r-436,659r469,706r-182,0r-413,-628r-4,0r-422,628r-189,0","w":1190},"Y":{"d":"-10,-1365r179,0r404,639r4,0r403,-639r183,0r-516,795r0,570r-154,0r0,-570","w":1152},"Z":{"d":"48,0r0,-133r857,-1099r0,-3r-832,0r0,-130r1022,0r0,130r-859,1102r0,3r877,0r0,130r-1065,0","w":1161},"[":{"d":"113,410r0,-1775r349,0r0,116r-195,0r0,1543r195,0r0,116r-349,0","w":567},"\\":{"d":"-136,-1365r115,0r1200,1775r-114,0","w":1323},"]":{"d":"105,294r195,0r0,-1543r-195,0r0,-116r349,0r0,1775r-349,0r0,-116","w":567},"^":{"d":"0,-752r365,-617r184,0r365,617r-153,0r-306,-506r-303,506r-152,0","w":914},"_":{"d":"0,136r1024,0r0,130r-1024,0r0,-130","w":1024},"`":{"d":"286,-1253r72,-98r271,205r-49,74","w":1024},"a":{"d":"501,-970v305,0,407,51,407,339r0,631r-140,0r11,-103r-3,-1v-53,79,-162,118,-325,118v-241,0,-362,-97,-362,-291v0,-252,107,-305,374,-305v168,0,269,33,302,99r3,-1r0,-116v-6,-218,-28,-261,-242,-261v-185,0,-269,45,-257,173r-139,0v7,-251,99,-282,371,-282xm494,-473v-194,0,-258,5,-258,180v0,172,58,191,243,191v197,0,296,-60,296,-180v0,-176,-83,-191,-281,-191","w":1044},"b":{"d":"950,-466v0,342,-68,480,-390,480v-150,0,-250,-44,-300,-133r-4,1r7,118r-140,0r0,-1365r140,0r0,531r3,3v32,-93,137,-139,314,-139v317,0,370,156,370,504xm544,-854v-245,0,-277,88,-277,351v0,173,17,283,51,330v34,47,111,71,232,71v241,0,253,-101,253,-370v0,-158,-16,-262,-49,-310v-33,-48,-103,-72,-210,-72","w":1047},"c":{"d":"519,14v-373,0,-424,-106,-424,-497v0,-362,62,-487,406,-487v294,0,396,49,403,326r-140,0v2,-189,-68,-209,-274,-210v-105,0,-173,23,-203,70v-30,47,-45,151,-45,314v0,159,18,260,52,303v34,43,114,65,240,65v219,0,239,-25,246,-243r140,0v18,248,-112,359,-401,359","w":993},"d":{"d":"478,14v-330,0,-381,-147,-381,-506v0,-334,61,-478,371,-478v174,0,278,45,311,135r3,-2r0,-528r140,0r0,1365r-140,0r7,-124r-4,-1v-44,93,-146,139,-307,139xm501,-854v-239,0,-257,97,-257,361v0,160,16,265,50,315v34,50,104,76,210,76v115,0,190,-26,225,-76v35,-50,52,-159,52,-328v0,-259,-37,-348,-280,-348","w":1045},"e":{"d":"524,14v-382,0,-429,-103,-429,-502v0,-367,58,-482,408,-482v365,0,419,74,428,443r0,75r-688,0v10,285,8,350,275,350v205,0,271,-1,270,-187r143,0v9,257,-128,303,-407,303xm787,-606v-6,-219,-47,-248,-271,-248v-240,0,-264,48,-271,293r543,0","w":1029},"f":{"d":"14,-840r0,-116r146,0r0,-142v-8,-224,157,-309,390,-274r0,116v-148,-24,-251,3,-250,145r0,155r250,0r0,116r-250,0r0,840r-140,0r0,-840r-146,0","w":543},"g":{"d":"468,14v-316,0,-372,-144,-372,-486v0,-356,54,-498,384,-498v157,0,259,48,307,144r3,-1r-7,-129r140,0r0,1018v-6,297,-111,364,-420,364v-274,0,-364,-52,-370,-313r135,0v5,183,50,197,245,197v208,0,265,-36,270,-236r0,-192r-3,-1v-36,89,-140,133,-312,133xm779,-502v0,-270,-22,-352,-273,-352v-110,0,-176,28,-214,70v-61,68,-60,544,0,612v38,43,104,70,214,70v111,0,185,-26,220,-78v35,-52,53,-159,53,-322","w":1045},"h":{"d":"561,-854v-248,0,-298,64,-298,316r0,538r-140,0r0,-1365r140,0r0,527r3,2v35,-89,134,-134,296,-134v255,1,360,117,360,359r0,611r-140,0r0,-638v0,-144,-74,-216,-221,-216","w":1053},"i":{"d":"123,0r0,-956r140,0r0,956r-140,0xm123,-1208r0,-157r140,0r0,157r-140,0","w":385},"j":{"d":"-10,260v37,-1,63,-13,92,-22v21,-18,32,-68,32,-150r0,-1044r140,0r0,1085v3,185,-97,262,-264,230r0,-99xm114,-1208r0,-157r140,0r0,157r-140,0","w":381},"k":{"d":"123,0r0,-1365r140,0r0,793r64,0r338,-384r176,0r-409,439r483,517r-189,0r-406,-463r-57,0r0,463r-140,0","w":881},"l":{"d":"123,0r0,-1365r140,0r0,1365r-140,0","w":386},"m":{"d":"1186,-854v-230,0,-284,67,-284,301r0,553r-140,0r-2,-669v0,-123,-70,-185,-211,-185v-191,0,-286,104,-286,311r0,543r-140,0r0,-956r140,0r-3,144r3,3v54,-107,158,-161,312,-161v162,0,260,54,295,161r4,0v60,-107,170,-161,329,-161v225,0,338,115,338,345r0,625r-140,0r0,-638v-3,-171,-45,-216,-215,-216","w":1691},"n":{"d":"786,-610v3,-186,-37,-244,-228,-244v-197,0,-295,93,-295,279r0,575r-140,0r0,-956r135,0r-4,130r4,3v43,-98,149,-147,318,-147v278,0,350,70,350,348r0,622r-140,0r0,-610","w":1056},"o":{"d":"518,14v-382,0,-422,-93,-422,-492v0,-205,26,-339,79,-400v53,-61,167,-92,343,-92v383,0,423,92,423,492v0,205,-26,339,-79,400v-53,61,-167,92,-344,92xm288,-794v-59,47,-59,586,0,632v30,40,106,60,230,60v125,0,202,-20,232,-60v59,-47,59,-586,0,-632v-30,-40,-107,-60,-232,-60v-124,0,-200,20,-230,60","w":1036},"p":{"d":"947,-464v0,333,-61,478,-369,478v-157,0,-261,-42,-312,-127r-3,0r0,523r-140,0r0,-1366r140,0r-7,121r4,3v49,-92,153,-138,314,-138v322,0,373,152,373,506xm541,-102v244,0,259,-95,259,-364v0,-163,-16,-268,-49,-316v-33,-48,-105,-72,-216,-72v-112,0,-185,24,-219,72v-34,48,-51,153,-51,312v0,273,25,368,276,368","w":1045},"q":{"d":"465,14v-310,0,-369,-154,-369,-493v0,-343,60,-491,377,-491v156,0,260,45,313,135r3,-3r-7,-118r140,0r0,1366r-140,0r0,-526r-3,-3v-42,89,-147,133,-314,133xm503,-102v243,0,275,-91,275,-353v0,-169,-18,-279,-52,-327v-34,-48,-111,-72,-231,-72v-103,0,-171,25,-203,75v-32,50,-49,155,-49,314v0,273,13,363,260,363","w":1044},"r":{"d":"137,0r0,-956r140,0r-14,110r3,3v55,-90,147,-135,274,-135v200,0,281,123,263,338r-138,0v24,-132,-16,-222,-154,-222v-156,0,-234,96,-234,289r0,573r-140,0","w":816},"s":{"d":"491,14v-296,0,-423,-42,-411,-318r145,0r1,45v5,148,70,157,237,157v200,0,282,1,282,-171v0,-101,-46,-151,-137,-151v-213,0,-353,-18,-420,-54v-67,-36,-100,-111,-100,-224v0,-252,113,-268,396,-268v269,0,392,72,380,264r-140,0v0,-67,-13,-108,-40,-124v-27,-16,-97,-24,-209,-24v-182,0,-240,-10,-240,148v0,98,47,149,141,154r256,13v173,9,260,99,260,272v0,247,-126,281,-401,281","w":970},"t":{"d":"-10,-840r0,-116r132,0r0,-230r140,0r0,230r368,0r0,116r-368,0r0,585v0,102,45,153,136,153v109,0,143,-70,136,-184r2,-53r130,0v17,222,-62,356,-267,353v-198,-3,-277,-86,-277,-269r0,-585r-132,0","w":667},"u":{"d":"475,-102v228,0,288,-74,288,-306r0,-548r140,0r0,956r-140,0r10,-125r-3,-3v-49,95,-153,142,-312,142v-223,0,-335,-111,-335,-334r0,-636r140,0r0,636v4,175,38,218,212,218","w":1039},"v":{"d":"-7,-956r144,0r273,847r4,0r261,-847r156,0r-320,956r-201,0","w":824},"w":{"d":"7,-956r147,0r217,861r4,0r210,-861r204,0r208,861r3,0r217,-861r150,0r-268,956r-208,0r-204,-855r-3,0r-206,855r-212,0","w":1373},"x":{"d":"-7,0r347,-500r-311,-456r168,0r217,349r216,-349r167,0r-310,450r347,506r-167,0r-253,-386r-254,386r-167,0","w":827},"y":{"d":"-7,-956r149,0r294,851r4,0r213,-851r149,0r-271,1011v-38,143,-81,241,-127,294v-58,67,-151,94,-265,73r0,-116v126,28,167,-32,217,-176r36,-130r-53,0","w":796},"z":{"d":"44,0r0,-133r572,-707r-524,0r0,-116r689,0r0,136r-570,704r570,0r0,116r-737,0","w":826},"{":{"d":"171,-422r0,-113v78,-23,117,-85,117,-188r0,-337v0,-203,79,-305,237,-305r88,0r0,111v-123,0,-185,66,-185,197r0,341v0,118,-43,197,-128,237v85,41,128,120,128,238r0,341v1,137,60,201,185,197r0,113r-88,0v-158,0,-237,-102,-237,-307r0,-338v0,-101,-39,-164,-117,-187","w":783},"|":{"d":"0,341r0,-1706r140,0r0,1706r-140,0","w":140},"}":{"d":"171,299v126,0,189,-66,189,-197r0,-341v0,-118,43,-197,128,-238v-85,-40,-128,-119,-128,-237r0,-341v-1,-137,-62,-201,-189,-197r0,-113r90,0v159,0,239,102,239,307r0,338v0,101,38,164,113,187r0,113v-75,24,-113,86,-113,187r0,338v0,203,-80,305,-239,305r-90,0r0,-111","w":783},"~":{"d":"279,-1482v81,0,354,143,432,143v68,0,130,-49,187,-147r86,51v-113,214,-243,280,-460,179v-69,-32,-181,-96,-257,-96v-67,0,-128,52,-183,156r-84,-54v77,-155,170,-232,279,-232","w":984},"\u00a0":{"w":512}}});
